{
  "n_layers": 3,
  "layer_sizes": [
    784,
    100,
    10
  ],
  "activation": "logistic",
  "out_activation": "softmax",
  "weights": [
    [ // here be weights between layer 1 and layer 2
      [ // here be weights of input 1 to all 100 hidden neurons
        -0.009230599845819969,
        0.009531288362481575,
        -0.04443269703724529,
        
        ...
        
        -0.021905014335143403 // 100 in an array
      ],
      [ // here be weights of input 2 to all 100 hidden neurons
        0.004950818655168913,
        0.010639153156452917,
        -0.026126957782457307,
        
        ...
        
        0.04668644343053879 // 100 in an array
      ],
      [
          ...
      ],
      
      ...
      
      [
          ...
      ]  // 784 of such arrays

    ],
    [
      [ // weight of hidden neuron 1 for all 10 output neurons
        -0.008179546022555956,
        0.27103896883172673,
        -0.26689663628583243,
        -0.31832959132088523,
        -0.009143196614162425,
        0.49133011556088485,
        -0.3512081631029979,
        0.287794416730918,
        -0.19305147151972216,
        -0.24333291618520705
      ],
      [ // weight of hidden neuron 1 for all 10 output neurons
        ...
      ],
      
      ...
      
      [ // weight of hidden neuron 100 for all 10 output neurons
        ...
      ],

    ]
  ],
  "biases": [
    [ // biases for 
      -0.012428553745011832,
      -0.04163845182544079,
      0.02160921303684683,
      -0.0004167634632853149,
      0.03356387788406504,
      -0.004435732860898513,
      0.04390814394064985,
      -0.037741264810197864,
      0.010930840598028135,
      0.02215760817412896,
      0.03303832199948175,
      -0.03308161819816263,
      -0.01796983077068002,
      0.04635264283863949,
      0.04699277809794357,
      0.023339504532476744,
      -0.005410331718285825,
      -0.01041148145723106,
      0.00356497002083781,
      -0.00866051845250666,
      0.00013773937407734183,
      0.005516047370525859,
      0.009659094929807995,
      -0.004689865654075972,
      -0.010380039169346815,
      0.015609366763615221,
      -0.004416089146699982,
      0.045475578767131875,
      -0.030629103626318464,
      0.024968157479101517,
      -0.042991529340695174,
      0.007006383102003532,
      0.034100300991229585,
      -0.02858040526772124,
      0.027514242062054,
      -0.024972310918248888,
      -0.033405146078363944,
      0.01741703786839894,
      0.007171075517160997,
      -0.023793464050837716,
      -0.015371546433291739,
      0.013569783064357863,
      0.034467776754552114,
      0.01802607465070916,
      0.04099499518973649,
      0.013949733461324363,
      0.00952914767907011,
      -0.0066129230491313905,
      -0.03841354398756259,
      -0.020516738122805366,
      0.035875674328981026,
      -0.005309318715935746,
      -0.01371438448875931,
      -0.047441132494192656,
      0.03742253361771535,
      -0.045108294837082064,
      -0.02431097440945966,
      0.029055087931263112,
      0.046478370955066586,
      0.023351593097580583,
      0.043215818250208295,
      -0.00366144098007899,
      0.01941321267811928,
      -0.03388555626118351,
      0.04276889086868021,
      -0.017968558537246392,
      -0.031407375880832346,
      0.03163921066135945,
      -0.03881741937244383,
      -0.027136222644316713,
      0.038085946293047686,
      0.03623145401155931,
      -0.04764094401506467,
      -0.02740688896904472,
      0.03948307288419941,
      0.022484863479016296,
      -0.03992551987879033,
      -0.011089517830338591,
      0.007207859967529244,
      -0.037723654510581815,
      -0.01060299925293752,
      0.0009760080494051598,
      0.04213528844042578,
      0.027209760825431473,
      -0.04243717417974124,
      -0.042229970198864146,
      -0.0008376259568984323,
      -0.014661060858864252,
      0.04488180633006875,
      -0.020872515560345216,
      -0.009247474766391492,
      0.01742757378156719,
      -0.03844904616042717,
      -0.03168283944342583,
      -0.01049982982137911,
      0.014367509353000357,
      -0.024198227645636748,
      -0.019826724702484175,
      -0.02134281281049141,
      -0.000533145822658016
    ],
    [
      0.05541324068449571,
      -0.024138639469722972,
      -0.08090760875522432,
      0.07286944588924774,
      0.04051250283559327,
      -0.09292263623286398,
      0.022234052920780425,
      -0.043154373238451456,
      -0.1536803945948348,
      0.016814324833288815
    ]
  ]
}